%YAML:1.0
my_boost_tree: !!opencv-ml-boost-tree
   boosting_type: RealAdaboost
   splitting_criteria: Gini
   ntrees: 100
   weight_trimming_rate: 9.4999998807907104e-001
   is_classifier: 1
   var_all: 376
   var_count: 376
   ord_var_count: 376
   cat_var_count: 0
   training_params:
      use_surrogates: 0
      max_categories: 10
      max_depth: 3
      min_sample_count: 10
      cross_validation_folds: 0
      priors: !!opencv-matrix
         rows: 1
         cols: 2
         dt: d
         data: [ 1., 1. ]
   var_type: [ 0, 0, 0, 0, 0, 0, 0, 0, 0, 0, 0, 0, 0, 0, 0, 0, 0, 0, 0,
       0, 0, 0, 0, 0, 0, 0, 0, 0, 0, 0, 0, 0, 0, 0, 0, 0, 0, 0, 0, 0, 0,
       0, 0, 0, 0, 0, 0, 0, 0, 0, 0, 0, 0, 0, 0, 0, 0, 0, 0, 0, 0, 0, 0,
       0, 0, 0, 0, 0, 0, 0, 0, 0, 0, 0, 0, 0, 0, 0, 0, 0, 0, 0, 0, 0, 0,
       0, 0, 0, 0, 0, 0, 0, 0, 0, 0, 0, 0, 0, 0, 0, 0, 0, 0, 0, 0, 0, 0,
       0, 0, 0, 0, 0, 0, 0, 0, 0, 0, 0, 0, 0, 0, 0, 0, 0, 0, 0, 0, 0, 0,
       0, 0, 0, 0, 0, 0, 0, 0, 0, 0, 0, 0, 0, 0, 0, 0, 0, 0, 0, 0, 0, 0,
       0, 0, 0, 0, 0, 0, 0, 0, 0, 0, 0, 0, 0, 0, 0, 0, 0, 0, 0, 0, 0, 0,
       0, 0, 0, 0, 0, 0, 0, 0, 0, 0, 0, 0, 0, 0, 0, 0, 0, 0, 0, 0, 0, 0,
       0, 0, 0, 0, 0, 0, 0, 0, 0, 0, 0, 0, 0, 0, 0, 0, 0, 0, 0, 0, 0, 0,
       0, 0, 0, 0, 0, 0, 0, 0, 0, 0, 0, 0, 0, 0, 0, 0, 0, 0, 0, 0, 0, 0,
       0, 0, 0, 0, 0, 0, 0, 0, 0, 0, 0, 0, 0, 0, 0, 0, 0, 0, 0, 0, 0, 0,
       0, 0, 0, 0, 0, 0, 0, 0, 0, 0, 0, 0, 0, 0, 0, 0, 0, 0, 0, 0, 0, 0,
       0, 0, 0, 0, 0, 0, 0, 0, 0, 0, 0, 0, 0, 0, 0, 0, 0, 0, 0, 0, 0, 0,
       0, 0, 0, 0, 0, 0, 0, 0, 0, 0, 0, 0, 0, 0, 0, 0, 0, 0, 0, 0, 0, 0,
       0, 0, 0, 0, 0, 0, 0, 0, 0, 0, 0, 0, 0, 0, 0, 0, 0, 0, 0, 0, 0, 0,
       0, 0, 0, 0, 0, 0, 0, 0, 0, 0, 0, 0, 0, 0, 0, 0, 0, 0, 0, 0, 0, 0,
       0, 0, 0, 0, 0 ]
   cat_count: !!opencv-matrix
      rows: 1
      cols: 1
      dt: i
      data: [ 2 ]
   cat_map: !!opencv-matrix
      rows: 1
      cols: 2
      dt: i
      data: [ 0, 1 ]
   trees:
      -
         best_tree_idx: -1
         nodes:
            -
               depth: 0
               sample_count: 73223
               value: -9.0477292362262762e-002
               norm_class_idx: 0
               Tn: 0
               complexity: 0
               alpha: 0.
               node_risk: 0.
               tree_risk: 0.
               tree_error: 0.
               splits:
                  - { var:77, quality:6.0453569889068604e-001,
                      le:2.4069821834564209e-001 }
            -
               depth: 1
               sample_count: 18734
               value: -1.2733487766212050e+000
               norm_class_idx: 0
               Tn: 0
               complexity: 0
               alpha: 0.
               node_risk: 0.
               tree_risk: 0.
               tree_error: 0.
               splits:
                  - { var:361, quality:2.2678335011005402e-001,
                      le:3.5882353782653809e-001 }
            -
               depth: 2
               sample_count: 955
               value: 3.2472141480475836e-002
               norm_class_idx: 1
               Tn: 0
               complexity: 0
               alpha: 0.
               node_risk: 0.
               tree_risk: 0.
               tree_error: 0.
               splits:
                  - { var:294, quality:1.0425976477563381e-002,
                      le:2.0196078717708588e-001 }
            -
               depth: 3
               sample_count: 558
               value: 8.3769794011295251e-001
               norm_class_idx: 1
               Tn: 0
               complexity: 0
               alpha: 0.
               node_risk: 0.
               tree_risk: 0.
               tree_error: 0.
            -
               depth: 3
               sample_count: 397
               value: -1.3943807907426939e+000
               norm_class_idx: 0
               Tn: 0
               complexity: 0
               alpha: 0.
               node_risk: 0.
               tree_risk: 0.
               tree_error: 0.
            -
               depth: 2
               sample_count: 17779
               value: -1.4847639310446483e+000
               norm_class_idx: 0
               Tn: 0
               complexity: 0
               alpha: 0.
               node_risk: 0.
               tree_risk: 0.
               tree_error: 0.
               splits:
                  - { var:67, quality:2.2178807854652405e-001,
                      le:2.2962263226509094e-001 }
            -
               depth: 3
               sample_count: 14935
               value: -1.8462271619317738e+000
               norm_class_idx: 0
               Tn: 0
               complexity: 0
               alpha: 0.
               node_risk: 0.
               tree_risk: 0.
               tree_error: 0.
            -
               depth: 3
               sample_count: 2844
               value: -7.6646016865438715e-001
               norm_class_idx: 0
               Tn: 0
               complexity: 0
               alpha: 0.
               node_risk: 0.
               tree_risk: 0.
               tree_error: 0.
            -
               depth: 1
               sample_count: 54489
               value: 1.7434902194073451e-001
               norm_class_idx: 1
               Tn: 0
               complexity: 0
               alpha: 0.
               node_risk: 0.
               tree_risk: 0.
               tree_error: 0.
               splits:
                  - { var:279, quality:4.2964938282966614e-001,
                      le:7.8125000000000000e-003 }
            -
               depth: 2
               sample_count: 47993
               value: 3.1243237842248189e-001
               norm_class_idx: 1
               Tn: 0
               complexity: 0
               alpha: 0.
               node_risk: 0.
               tree_risk: 0.
               tree_error: 0.
               splits:
                  - { var:329, quality:3.9497929811477661e-001,
                      le:5.9019613265991211e-001 }
            -
               depth: 3
               sample_count: 36446
               value: 5.3922317606993830e-001
               norm_class_idx: 1
               Tn: 0
               complexity: 0
               alpha: 0.
               node_risk: 0.
               tree_risk: 0.
               tree_error: 0.
            -
               depth: 3
               sample_count: 11547
               value: -3.0542289570312470e-001
               norm_class_idx: 0
               Tn: 0
               complexity: 0
               alpha: 0.
               node_risk: 0.
               tree_risk: 0.
               tree_error: 0.
            -
               depth: 2
               sample_count: 6496
               value: -1.0666013592856221e+000
               norm_class_idx: 0
               Tn: 0
               complexity: 0
               alpha: 0.
               node_risk: 0.
               tree_risk: 0.
               tree_error: 0.
               splits:
                  - { var:45, quality:7.3493376374244690e-002,
                      le:3.4912249445915222e-001 }
            -
               depth: 3
               sample_count: 6358
               value: -1.1446676539145120e+000
               norm_class_idx: 0
               Tn: 0
               complexity: 0
               alpha: 0.
               node_risk: 0.
               tree_risk: 0.
               tree_error: 0.
            -
               depth: 3
               sample_count: 138
               value: 5.3969046337011073e-001
               norm_class_idx: 1
               Tn: 0
               complexity: 0
               alpha: 0.
               node_risk: 0.
               tree_risk: 0.
               tree_error: 0.
      -
         best_tree_idx: -1
         nodes:
            -
               depth: 0
               sample_count: 73223
               value: -4.1877612488878444e-013
               norm_class_idx: 0
               Tn: 0
               complexity: 0
               alpha: 0.
               node_risk: 0.
               tree_risk: 0.
               tree_error: 0.
               splits:
                  - { var:295, quality:5.4427450895309448e-001,
                      le:8.5156250000000000e-001 }
            -
               depth: 1
               sample_count: 20737
               value: -5.1271507822478479e-001
               norm_class_idx: 0
               Tn: 0
               complexity: 0
               alpha: 0.
               node_risk: 0.
               tree_risk: 0.
               tree_error: 0.
               splits:
                  - { var:128, quality:1.8923428654670715e-001,
                      le:2.5629252195358276e-001 }
            -
               depth: 2
               sample_count: 9972
               value: -1.4399923124966720e+000
               norm_class_idx: 0
               Tn: 0
               complexity: 0
               alpha: 0.
               node_risk: 0.
               tree_risk: 0.
               tree_error: 0.
               splits:
                  - { var:170, quality:9.7867831587791443e-002,
                      le:3.8411545753479004e-001 }
            -
               depth: 3
               sample_count: 9631
               value: -1.5660816720480215e+000
               norm_class_idx: 0
               Tn: 0
               complexity: 0
               alpha: 0.
               node_risk: 0.
               tree_risk: 0.
               tree_error: 0.
            -
               depth: 3
               sample_count: 341
               value: 7.3308294076334199e-002
               norm_class_idx: 1
               Tn: 0
               complexity: 0
               alpha: 0.
               node_risk: 0.
               tree_risk: 0.
               tree_error: 0.
            -
               depth: 2
               sample_count: 10765
               value: -2.1919879682334689e-001
               norm_class_idx: 0
               Tn: 0
               complexity: 0
               alpha: 0.
               node_risk: 0.
               tree_risk: 0.
               tree_error: 0.
               splits:
                  - { var:351, quality:1.0932718962430954e-001,
                      le:6.1718750000000000e-001 }
            -
               depth: 3
               sample_count: 3273
               value: 4.2106921009208476e-001
               norm_class_idx: 1
               Tn: 0
               complexity: 0
               alpha: 0.
               node_risk: 0.
               tree_risk: 0.
               tree_error: 0.
            -
               depth: 3
               sample_count: 7492
               value: -5.8324925561831564e-001
               norm_class_idx: 0
               Tn: 0
               complexity: 0
               alpha: 0.
               node_risk: 0.
               tree_risk: 0.
               tree_error: 0.
            -
               depth: 1
               sample_count: 52486
               value: 1.8982866269619356e-001
               norm_class_idx: 1
               Tn: 0
               complexity: 0
               alpha: 0.
               node_risk: 0.
               tree_risk: 0.
               tree_error: 0.
               splits:
                  - { var:66, quality:4.1326501965522766e-001,
                      le:1.6483670473098755e-001 }
            -
               depth: 2
               sample_count: 14561
               value: -5.0715052955816431e-001
               norm_class_idx: 0
               Tn: 0
               complexity: 0
               alpha: 0.
               node_risk: 0.
               tree_risk: 0.
               tree_error: 0.
               splits:
                  - { var:30, quality:1.0715144872665405e-001,
                      le:2.5996869802474976e-001 }
            -
               depth: 3
               sample_count: 9099
               value: -1.0464841202463482e+000
               norm_class_idx: 0
               Tn: 0
               complexity: 0
               alpha: 0.
               node_risk: 0.
               tree_risk: 0.
               tree_error: 0.
            -
               depth: 3
               sample_count: 5462
               value: 2.5656770962555486e-002
               norm_class_idx: 1
               Tn: 0
               complexity: 0
               alpha: 0.
               node_risk: 0.
               tree_risk: 0.
               tree_error: 0.
            -
               depth: 2
               sample_count: 37925
               value: 3.8884844674665847e-001
               norm_class_idx: 1
               Tn: 0
               complexity: 0
               alpha: 0.
               node_risk: 0.
               tree_risk: 0.
               tree_error: 0.
               splits:
                  - { var:249, quality:3.4221604466438293e-001,
                      le:7.0784318447113037e-001 }
            -
               depth: 3
               sample_count: 33466
               value: 5.2689580630827415e-001
               norm_class_idx: 1
               Tn: 0
               complexity: 0
               alpha: 0.
               node_risk: 0.
               tree_risk: 0.
               tree_error: 0.
            -
               depth: 3
               sample_count: 4459
               value: -4.1556873740162176e-001
               norm_class_idx: 0
               Tn: 0
               complexity: 0
               alpha: 0.
               node_risk: 0.
               tree_risk: 0.
               tree_error: 0.
      -
         best_tree_idx: -1
         nodes:
            -
               depth: 0
               sample_count: 73223
               value: 6.2838623193779910e-014
               norm_class_idx: 1
               Tn: 0
               complexity: 0
               alpha: 0.
               node_risk: 0.
               tree_risk: 0.
               tree_error: 0.
               splits:
                  - { var:306, quality:5.2211898565292358e-001,
                      le:4.1372549533843994e-001 }
            -
               depth: 1
               sample_count: 5854
               value: -7.4388898457346941e-001
               norm_class_idx: 0
               Tn: 0
               complexity: 0
               alpha: 0.
               node_risk: 0.
               tree_risk: 0.
               tree_error: 0.
               splits:
                  - { var:278, quality:7.3351643979549408e-002,
                      le:5.1568627357482910e-001 }
            -
               depth: 2
               sample_count: 4671
               value: -9.8063567361835446e-001
               norm_class_idx: 0
               Tn: 0
               complexity: 0
               alpha: 0.
               node_risk: 0.
               tree_risk: 0.
               tree_error: 0.
               splits:
                  - { var:146, quality:6.8535447120666504e-002,
                      le:3.4259248524904251e-002 }
            -
               depth: 3
               sample_count: 410
               value: 3.7594889928774705e-001
               norm_class_idx: 1
               Tn: 0
               complexity: 0
               alpha: 0.
               node_risk: 0.
               tree_risk: 0.
               tree_error: 0.
            -
               depth: 3
               sample_count: 4261
               value: -1.2163056896250515e+000
               norm_class_idx: 0
               Tn: 0
               complexity: 0
               alpha: 0.
               node_risk: 0.
               tree_risk: 0.
               tree_error: 0.
            -
               depth: 2
               sample_count: 1183
               value: -5.4074285443658270e-002
               norm_class_idx: 0
               Tn: 0
               complexity: 0
               alpha: 0.
               node_risk: 0.
               tree_risk: 0.
               tree_error: 0.
               splits:
                  - { var:251, quality:1.2786787934601307e-002,
                      le:1.6406250000000000e-001 }
            -
               depth: 3
               sample_count: 694
               value: 6.9980716833611556e-001
               norm_class_idx: 1
               Tn: 0
               complexity: 0
               alpha: 0.
               node_risk: 0.
               tree_risk: 0.
               tree_error: 0.
            -
               depth: 3
               sample_count: 489
               value: -1.0040385625511783e+000
               norm_class_idx: 0
               Tn: 0
               complexity: 0
               alpha: 0.
               node_risk: 0.
               tree_risk: 0.
               tree_error: 0.
            -
               depth: 1
               sample_count: 67369
               value: 7.0168377580219737e-002
               norm_class_idx: 1
               Tn: 0
               complexity: 0
               alpha: 0.
               node_risk: 0.
               tree_risk: 0.
               tree_error: 0.
               splits:
                  - { var:308, quality:4.7428140044212341e-001,
                      le:4.2549020051956177e-001 }
            -
               depth: 2
               sample_count: 53144
               value: 1.8075640499508608e-001
               norm_class_idx: 1
               Tn: 0
               complexity: 0
               alpha: 0.
               node_risk: 0.
               tree_risk: 0.
               tree_error: 0.
               splits:
                  - { var:329, quality:3.8752466440200806e-001,
                      le:5.4313731193542480e-001 }
            -
               depth: 3
               sample_count: 27593
               value: 3.9923943819777163e-001
               norm_class_idx: 1
               Tn: 0
               complexity: 0
               alpha: 0.
               node_risk: 0.
               tree_risk: 0.
               tree_error: 0.
            -
               depth: 3
               sample_count: 25551
               value: -7.7639235447347571e-003
               norm_class_idx: 0
               Tn: 0
               complexity: 0
               alpha: 0.
               node_risk: 0.
               tree_risk: 0.
               tree_error: 0.
            -
               depth: 2
               sample_count: 14225
               value: -3.9936359119766246e-001
               norm_class_idx: 0
               Tn: 0
               complexity: 0
               alpha: 0.
               node_risk: 0.
               tree_risk: 0.
               tree_error: 0.
               splits:
                  - { var:128, quality:1.0716117173433304e-001,
                      le:3.6296951770782471e-001 }
            -
               depth: 3
               sample_count: 12150
               value: -5.8792042609126893e-001
               norm_class_idx: 0
               Tn: 0
               complexity: 0
               alpha: 0.
               node_risk: 0.
               tree_risk: 0.
               tree_error: 0.
            -
               depth: 3
               sample_count: 2075
               value: 1.4585514081445938e-001
               norm_class_idx: 1
               Tn: 0
               complexity: 0
               alpha: 0.
               node_risk: 0.
               tree_risk: 0.
               tree_error: 0.
      -
         best_tree_idx: -1
         nodes:
            -
               depth: 0
               sample_count: 73223
               value: 1.9451107391428959e-013
               norm_class_idx: 1
               Tn: 0
               complexity: 0
               alpha: 0.
               node_risk: 0.
               tree_risk: 0.
               tree_error: 0.
               splits:
                  - { var:30, quality:5.1826655864715576e-001,
                      le:1.4030022919178009e-001 }
            -
               depth: 1
               sample_count: 12833
               value: -4.6711599448250918e-001
               norm_class_idx: 0
               Tn: 0
               complexity: 0
               alpha: 0.
               node_risk: 0.
               tree_risk: 0.
               tree_error: 0.
               splits:
                  - { var:145, quality:1.0211692750453949e-001,
                      le:2.4678300321102142e-001 }
            -
               depth: 2
               sample_count: 10244
               value: -6.4863745412685814e-001
               norm_class_idx: 0
               Tn: 0
               complexity: 0
               alpha: 0.
               node_risk: 0.
               tree_risk: 0.
               tree_error: 0.
               splits:
                  - { var:16, quality:9.0669557452201843e-002,
                      le:4.5681816339492798e-001 }
            -
               depth: 3
               sample_count: 9894
               value: -7.4783294537801026e-001
               norm_class_idx: 0
               Tn: 0
               complexity: 0
               alpha: 0.
               node_risk: 0.
               tree_risk: 0.
               tree_error: 0.
            -
               depth: 3
               sample_count: 350
               value: 5.3001500824599623e-001
               norm_class_idx: 1
               Tn: 0
               complexity: 0
               alpha: 0.
               node_risk: 0.
               tree_risk: 0.
               tree_error: 0.
            -
               depth: 2
               sample_count: 2589
               value: 1.3062254174652019e-001
               norm_class_idx: 1
               Tn: 0
               complexity: 0
               alpha: 0.
               node_risk: 0.
               tree_risk: 0.
               tree_error: 0.
               splits:
                  - { var:100, quality:1.8800958991050720e-002,
                      le:1.5216761827468872e-001 }
            -
               depth: 3
               sample_count: 1351
               value: 4.8439113933660249e-001
               norm_class_idx: 1
               Tn: 0
               complexity: 0
               alpha: 0.
               node_risk: 0.
               tree_risk: 0.
               tree_error: 0.
            -
               depth: 3
               sample_count: 1238
               value: -5.1909914672264834e-001
               norm_class_idx: 0
               Tn: 0
               complexity: 0
               alpha: 0.
               node_risk: 0.
               tree_risk: 0.
               tree_error: 0.
            -
               depth: 1
               sample_count: 60390
               value: 8.4014275894766205e-002
               norm_class_idx: 1
               Tn: 0
               complexity: 0
               alpha: 0.
               node_risk: 0.
               tree_risk: 0.
               tree_error: 0.
               splits:
                  - { var:78, quality:4.4118657708168030e-001,
                      le:2.5356870889663696e-001 }
            -
               depth: 2
               sample_count: 25577
               value: -2.1146983034034861e-001
               norm_class_idx: 0
               Tn: 0
               complexity: 0
               alpha: 0.
               node_risk: 0.
               tree_risk: 0.
               tree_error: 0.
               splits:
                  - { var:293, quality:1.5910483896732330e-001,
                      le:5.5882358551025391e-001 }
            -
               depth: 3
               sample_count: 16813
               value: -8.2130587488720555e-002
               norm_class_idx: 0
               Tn: 0
               complexity: 0
               alpha: 0.
               node_risk: 0.
               tree_risk: 0.
               tree_error: 0.
            -
               depth: 3
               sample_count: 8764
               value: -7.6853399394817301e-001
               norm_class_idx: 0
               Tn: 0
               complexity: 0
               alpha: 0.
               node_risk: 0.
               tree_risk: 0.
               tree_error: 0.
            -
               depth: 2
               sample_count: 34813
               value: 2.4257212149092505e-001
               norm_class_idx: 1
               Tn: 0
               complexity: 0
               alpha: 0.
               node_risk: 0.
               tree_risk: 0.
               tree_error: 0.
               splits:
                  - { var:230, quality:3.0732795596122742e-001,
                      le:6.0980391502380371e-001 }
            -
               depth: 3
               sample_count: 29357
               value: 3.6502050052327717e-001
               norm_class_idx: 1
               Tn: 0
               complexity: 0
               alpha: 0.
               node_risk: 0.
               tree_risk: 0.
               tree_error: 0.
            -
               depth: 3
               sample_count: 5456
               value: -3.3609342681224441e-001
               norm_class_idx: 0
               Tn: 0
               complexity: 0
               alpha: 0.
               node_risk: 0.
               tree_risk: 0.
               tree_error: 0.
      -
         best_tree_idx: -1
         nodes:
            -
               depth: 0
               sample_count: 73223
               value: -3.1308289294430393e-014
               norm_class_idx: 0
               Tn: 0
               complexity: 0
               alpha: 0.
               node_risk: 0.
               tree_risk: 0.
               tree_error: 0.
               splits:
                  - { var:81, quality:5.1838505268096924e-001,
                      le:2.6499715447425842e-001 }
            -
               depth: 1
               sample_count: 43383
               value: -1.7248211279677744e-001
               norm_class_idx: 0
               Tn: 0
               complexity: 0
               alpha: 0.
               node_risk: 0.
               tree_risk: 0.
               tree_error: 0.
               splits:
                  - { var:282, quality:3.0855569243431091e-001,
                      le:4.8039215803146362e-001 }
            -
               depth: 2
               sample_count: 19005
               value: 1.4595360304263144e-001
               norm_class_idx: 1
               Tn: 0
               complexity: 0
               alpha: 0.
               node_risk: 0.
               tree_risk: 0.
               tree_error: 0.
               splits:
                  - { var:87, quality:1.3670392334461212e-001,
                      le:2.3874580860137939e-001 }
            -
               depth: 3
               sample_count: 11713
               value: 4.1392100785851865e-001
               norm_class_idx: 1
               Tn: 0
               complexity: 0
               alpha: 0.
               node_risk: 0.
               tree_risk: 0.
               tree_error: 0.
            -
               depth: 3
               sample_count: 7292
               value: -2.6595850704589596e-001
               norm_class_idx: 0
               Tn: 0
               complexity: 0
               alpha: 0.
               node_risk: 0.
               tree_risk: 0.
               tree_error: 0.
            -
               depth: 2
               sample_count: 24378
               value: -4.4315493162978759e-001
               norm_class_idx: 0
               Tn: 0
               complexity: 0
               alpha: 0.
               node_risk: 0.
               tree_risk: 0.
               tree_error: 0.
               splits:
                  - { var:85, quality:1.9519464671611786e-001,
                      le:6.3371673226356506e-002 }
            -
               depth: 3
               sample_count: 2893
               value: 2.3893754806090886e-001
               norm_class_idx: 1
               Tn: 0
               complexity: 0
               alpha: 0.
               node_risk: 0.
               tree_risk: 0.
               tree_error: 0.
            -
               depth: 3
               sample_count: 21485
               value: -5.8397131441203809e-001
               norm_class_idx: 0
               Tn: 0
               complexity: 0
               alpha: 0.
               node_risk: 0.
               tree_risk: 0.
               tree_error: 0.
            -
               depth: 1
               sample_count: 29840
               value: 2.1871415234326780e-001
               norm_class_idx: 1
               Tn: 0
               complexity: 0
               alpha: 0.
               node_risk: 0.
               tree_risk: 0.
               tree_error: 0.
               splits:
                  - { var:337, quality:2.4780659377574921e-001,
                      le:5.7058823108673096e-001 }
            -
               depth: 2
               sample_count: 23447
               value: 3.8359314602706662e-001
               norm_class_idx: 1
               Tn: 0
               complexity: 0
               alpha: 0.
               node_risk: 0.
               tree_risk: 0.
               tree_error: 0.
               splits:
                  - { var:241, quality:2.0124267041683197e-001,
                      le:6.8823528289794922e-001 }
            -
               depth: 3
               sample_count: 20158
               value: 5.0240591945546875e-001
               norm_class_idx: 1
               Tn: 0
               complexity: 0
               alpha: 0.
               node_risk: 0.
               tree_risk: 0.
               tree_error: 0.
            -
               depth: 3
               sample_count: 3289
               value: -1.9243964216464013e-001
               norm_class_idx: 0
               Tn: 0
               complexity: 0
               alpha: 0.
               node_risk: 0.
               tree_risk: 0.
               tree_error: 0.
            -
               depth: 2
               sample_count: 6393
               value: -2.8373771736571785e-001
               norm_class_idx: 0
               Tn: 0
               complexity: 0
               alpha: 0.
               node_risk: 0.
               tree_risk: 0.
               tree_error: 0.
               splits:
                  - { var:154, quality:6.0691282153129578e-002,
                      le:1.8216830492019653e-001 }
            -
               depth: 3
               sample_count: 3868
               value: -6.6785115223570513e-001
               norm_class_idx: 0
               Tn: 0
               complexity: 0
               alpha: 0.
               node_risk: 0.
               tree_risk: 0.
               tree_error: 0.
            -
               depth: 3
               sample_count: 2525
               value: 3.0318382430737353e-002
               norm_class_idx: 1
               Tn: 0
               complexity: 0
               alpha: 0.
               node_risk: 0.
               tree_risk: 0.
               tree_error: 0.
      -
         best_tree_idx: -1
         nodes:
            -
               depth: 0
               sample_count: 73223
               value: -2.2204460492503136e-016
               norm_class_idx: 0
               Tn: 0
               complexity: 0
               alpha: 0.
               node_risk: 0.
               tree_risk: 0.
               tree_error: 0.
               splits:
                  - { var:129, quality:5.1512169837951660e-001,
                      le:3.5978543758392334e-001 }
            -
               depth: 1
               sample_count: 61976
               value: -7.0546383571788385e-002
               norm_class_idx: 0
               Tn: 0
               complexity: 0
               alpha: 0.
               node_risk: 0.
               tree_risk: 0.
               tree_error: 0.
               splits:
                  - { var:191, quality:4.4389110803604126e-001,
                      le:8.9843750000000000e-001 }
            -
               depth: 2
               sample_count: 11594
               value: -5.7342711181485617e-001
               norm_class_idx: 0
               Tn: 0
               complexity: 0
               alpha: 0.
               node_risk: 0.
               tree_risk: 0.
               tree_error: 0.
               splits:
                  - { var:250, quality:7.3412299156188965e-002,
                      le:5.7843136787414551e-001 }
            -
               depth: 3
               sample_count: 10528
               value: -7.5023193084212780e-001
               norm_class_idx: 0
               Tn: 0
               complexity: 0
               alpha: 0.
               node_risk: 0.
               tree_risk: 0.
               tree_error: 0.
            -
               depth: 3
               sample_count: 1066
               value: 4.0800414048898176e-001
               norm_class_idx: 1
               Tn: 0
               complexity: 0
               alpha: 0.
               node_risk: 0.
               tree_risk: 0.
               tree_error: 0.
            -
               depth: 2
               sample_count: 50382
               value: -6.8898868698961278e-003
               norm_class_idx: 0
               Tn: 0
               complexity: 0
               alpha: 0.
               node_risk: 0.
               tree_risk: 0.
               tree_error: 0.
               splits:
                  - { var:241, quality:3.8861888647079468e-001,
                      le:6.2941181659698486e-001 }
            -
               depth: 3
               sample_count: 34162
               value: 1.1900210273914626e-001
               norm_class_idx: 1
               Tn: 0
               complexity: 0
               alpha: 0.
               node_risk: 0.
               tree_risk: 0.
               tree_error: 0.
            -
               depth: 3
               sample_count: 16220
               value: -2.7830371177194857e-001
               norm_class_idx: 0
               Tn: 0
               complexity: 0
               alpha: 0.
               node_risk: 0.
               tree_risk: 0.
               tree_error: 0.
            -
               depth: 1
               sample_count: 11247
               value: 4.5917640767388368e-001
               norm_class_idx: 1
               Tn: 0
               complexity: 0
               alpha: 0.
               node_risk: 0.
               tree_risk: 0.
               tree_error: 0.
               splits:
                  - { var:217, quality:8.7107047438621521e-002,
                      le:6.9607841968536377e-001 }
            -
               depth: 2
               sample_count: 9647
               value: 5.7121437953368193e-001
               norm_class_idx: 1
               Tn: 0
               complexity: 0
               alpha: 0.
               node_risk: 0.
               tree_risk: 0.
               tree_error: 0.
               splits:
                  - { var:176, quality:8.0727681517601013e-002,
                      le:2.8327500820159912e-001 }
            -
               depth: 3
               sample_count: 9211
               value: 6.3477843063373185e-001
               norm_class_idx: 1
               Tn: 0
               complexity: 0
               alpha: 0.
               node_risk: 0.
               tree_risk: 0.
               tree_error: 0.
            -
               depth: 3
               sample_count: 436
               value: -5.3926463399350910e-001
               norm_class_idx: 0
               Tn: 0
               complexity: 0
               alpha: 0.
               node_risk: 0.
               tree_risk: 0.
               tree_error: 0.
            -
               depth: 2
               sample_count: 1600
               value: -1.7118258885130772e-001
               norm_class_idx: 0
               Tn: 0
               complexity: 0
               alpha: 0.
               node_risk: 0.
               tree_risk: 0.
               tree_error: 0.
               splits:
                  - { var:37, quality:1.1188194155693054e-002,
                      le:1.4170798659324646e-001 }
            -
               depth: 3
               sample_count: 596
               value: 6.0734505112043569e-001
               norm_class_idx: 1
               Tn: 0
               complexity: 0
               alpha: 0.
               node_risk: 0.
               tree_risk: 0.
               tree_error: 0.
            -
               depth: 3
               sample_count: 1004
               value: -5.3105807791480508e-001
               norm_class_idx: 0
               Tn: 0
               complexity: 0
               alpha: 0.
               node_risk: 0.
               tree_risk: 0.
               tree_error: 0.
      -
         best_tree_idx: -1
         nodes:
            -
               depth: 0
               sample_count: 73223
               value: 1.1102230246251442e-014
               norm_class_idx: 1
               Tn: 0
               complexity: 0
               alpha: 0.
               node_risk: 0.
               tree_risk: 0.
               tree_error: 0.
               splits:
                  - { var:276, quality:5.1159197092056274e-001,
                      le:3.0392158031463623e-001 }
            -
               depth: 1
               sample_count: 4119
               value: -6.5444249062334625e-001
               norm_class_idx: 0
               Tn: 0
               complexity: 0
               alpha: 0.
               node_risk: 0.
               tree_risk: 0.
               tree_error: 0.
               splits:
                  - { var:375, quality:4.6642325818538666e-002,
                      le:8.8281250000000000e-001 }
            -
               depth: 2
               sample_count: 938
               value: -9.6709971974551084e-002
               norm_class_idx: 0
               Tn: 0
               complexity: 0
               alpha: 0.
               node_risk: 0.
               tree_risk: 0.
               tree_error: 0.
               splits:
                  - { var:5, quality:1.1775948107242584e-002,
                      le:3.1941801309585571e-001 }
            -
               depth: 3
               sample_count: 874
               value: -3.4235184815481917e-001
               norm_class_idx: 0
               Tn: 0
               complexity: 0
               alpha: 0.
               node_risk: 0.
               tree_risk: 0.
               tree_error: 0.
            -
               depth: 3
               sample_count: 64
               value: 1.8511188205098350e+000
               norm_class_idx: 1
               Tn: 0
               complexity: 0
               alpha: 0.
               node_risk: 0.
               tree_risk: 0.
               tree_error: 0.
            -
               depth: 2
               sample_count: 3181
               value: -1.0119319356898544e+000
               norm_class_idx: 0
               Tn: 0
               complexity: 0
               alpha: 0.
               node_risk: 0.
               tree_risk: 0.
               tree_error: 0.
               splits:
                  - { var:145, quality:3.8711372762918472e-002,
                      le:2.7048671618103981e-002 }
            -
               depth: 3
               sample_count: 67
               value: 9.5250146547869829e-001
               norm_class_idx: 1
               Tn: 0
               complexity: 0
               alpha: 0.
               node_risk: 0.
               tree_risk: 0.
               tree_error: 0.
            -
               depth: 3
               sample_count: 3114
               value: -1.1283792887195896e+000
               norm_class_idx: 0
               Tn: 0
               complexity: 0
               alpha: 0.
               node_risk: 0.
               tree_risk: 0.
               tree_error: 0.
            -
               depth: 1
               sample_count: 69104
               value: 4.0366244169851219e-002
               norm_class_idx: 1
               Tn: 0
               complexity: 0
               alpha: 0.
               node_risk: 0.
               tree_risk: 0.
               tree_error: 0.
               splits:
                  - { var:78, quality:4.7903907299041748e-001,
                      le:1.3265889883041382e-001 }
            -
               depth: 2
               sample_count: 11862
               value: -4.4443549980743491e-001
               norm_class_idx: 0
               Tn: 0
               complexity: 0
               alpha: 0.
               node_risk: 0.
               tree_risk: 0.
               tree_error: 0.
               splits:
                  - { var:86, quality:6.2417771667242050e-002,
                      le:2.9550966620445251e-001 }
            -
               depth: 3
               sample_count: 8931
               value: -8.8313330855876437e-001
               norm_class_idx: 0
               Tn: 0
               complexity: 0
               alpha: 0.
               node_risk: 0.
               tree_risk: 0.
               tree_error: 0.
            -
               depth: 3
               sample_count: 2931
               value: 6.2588174889575493e-002
               norm_class_idx: 1
               Tn: 0
               complexity: 0
               alpha: 0.
               node_risk: 0.
               tree_risk: 0.
               tree_error: 0.
            -
               depth: 2
               sample_count: 57242
               value: 9.2421824704769964e-002
               norm_class_idx: 1
               Tn: 0
               complexity: 0
               alpha: 0.
               node_risk: 0.
               tree_risk: 0.
               tree_error: 0.
               splits:
                  - { var:167, quality:4.3384578824043274e-001,
                      le:3.0474776029586792e-001 }
            -
               depth: 3
               sample_count: 47767
               value: 1.6778840452793733e-001
               norm_class_idx: 1
               Tn: 0
               complexity: 0
               alpha: 0.
               node_risk: 0.
               tree_risk: 0.
               tree_error: 0.
            -
               depth: 3
               sample_count: 9475
               value: -2.5406965670034026e-001
               norm_class_idx: 0
               Tn: 0
               complexity: 0
               alpha: 0.
               node_risk: 0.
               tree_risk: 0.
               tree_error: 0.
      -
         best_tree_idx: -1
         nodes:
            -
               depth: 0
               sample_count: 73223
               value: 1.9984014443252778e-015
               norm_class_idx: 1
               Tn: 0
               complexity: 0
               alpha: 0.
               node_risk: 0.
               tree_risk: 0.
               tree_error: 0.
               splits:
                  - { var:226, quality:5.1125895977020264e-001,
                      le:5.9019613265991211e-001 }
            -
               depth: 1
               sample_count: 54429
               value: 8.6802697998167810e-002
               norm_class_idx: 1
               Tn: 0
               complexity: 0
               alpha: 0.
               node_risk: 0.
               tree_risk: 0.
               tree_error: 0.
               splits:
                  - { var:276, quality:3.8996046781539917e-001,
                      le:4.3725490570068359e-001 }
            -
               depth: 2
               sample_count: 42941
               value: 1.8399689738155661e-001
               norm_class_idx: 1
               Tn: 0
               complexity: 0
               alpha: 0.
               node_risk: 0.
               tree_risk: 0.
               tree_error: 0.
               splits:
                  - { var:228, quality:3.1102117896080017e-001,
                      le:2.6862746477127075e-001 }
            -
               depth: 3
               sample_count: 3780
               value: -3.9282199805641904e-001
               norm_class_idx: 0
               Tn: 0
               complexity: 0
               alpha: 0.
               node_risk: 0.
               tree_risk: 0.
               tree_error: 0.
            -
               depth: 3
               sample_count: 39161
               value: 2.4242503652269384e-001
               norm_class_idx: 1
               Tn: 0
               complexity: 0
               alpha: 0.
               node_risk: 0.
               tree_risk: 0.
               tree_error: 0.
            -
               depth: 2
               sample_count: 11488
               value: -2.5529501204582378e-001
               norm_class_idx: 0
               Tn: 0
               complexity: 0
               alpha: 0.
               node_risk: 0.
               tree_risk: 0.
               tree_error: 0.
               splits:
                  - { var:196, quality:9.6388913691043854e-002,
                      le:5.4901961237192154e-002 }
            -
               depth: 3
               sample_count: 3874
               value: 8.3001727033549341e-002
               norm_class_idx: 1
               Tn: 0
               complexity: 0
               alpha: 0.
               node_risk: 0.
               tree_risk: 0.
               tree_error: 0.
            -
               depth: 3
               sample_count: 7614
               value: -6.2407873400884251e-001
               norm_class_idx: 0
               Tn: 0
               complexity: 0
               alpha: 0.
               node_risk: 0.
               tree_risk: 0.
               tree_error: 0.
            -
               depth: 1
               sample_count: 18794
               value: -2.6617968479087289e-001
               norm_class_idx: 0
               Tn: 0
               complexity: 0
               alpha: 0.
               node_risk: 0.
               tree_risk: 0.
               tree_error: 0.
               splits:
                  - { var:329, quality:1.4787177741527557e-001,
                      le:5.1960790157318115e-001 }
            -
               depth: 2
               sample_count: 10113
               value: 9.9020328065622484e-002
               norm_class_idx: 1
               Tn: 0
               complexity: 0
               alpha: 0.
               node_risk: 0.
               tree_risk: 0.
               tree_error: 0.
               splits:
                  - { var:313, quality:7.0421144366264343e-002,
                      le:5.0392162799835205e-001 }
            -
               depth: 3
               sample_count: 3810
               value: 8.1065195520869249e-001
               norm_class_idx: 1
               Tn: 0
               complexity: 0
               alpha: 0.
               node_risk: 0.
               tree_risk: 0.
               tree_error: 0.
            -
               depth: 3
               sample_count: 6303
               value: -2.1556254608982711e-001
               norm_class_idx: 0
               Tn: 0
               complexity: 0
               alpha: 0.
               node_risk: 0.
               tree_risk: 0.
               tree_error: 0.
            -
               depth: 2
               sample_count: 8681
               value: -6.6929099560089655e-001
               norm_class_idx: 0
               Tn: 0
               complexity: 0
               alpha: 0.
               node_risk: 0.
               tree_risk: 0.
               tree_error: 0.
               splits:
                  - { var:370, quality:9.3372039496898651e-002,
                      le:3.4705883264541626e-001 }
            -
               depth: 3
               sample_count: 5831
               value: -9.7923038647807670e-001
               norm_class_idx: 0
               Tn: 0
               complexity: 0
               alpha: 0.
               node_risk: 0.
               tree_risk: 0.
               tree_error: 0.
            -
               depth: 3
               sample_count: 2850
               value: -9.6641428328762519e-002
               norm_class_idx: 0
               Tn: 0
               complexity: 0
               alpha: 0.
               node_risk: 0.
               tree_risk: 0.
               tree_error: 0.
      -
         best_tree_idx: -1
         nodes:
            -
               depth: 0
               sample_count: 73223
               value: -8.8817841970012602e-016
               norm_class_idx: 0
               Tn: 0
               complexity: 0
               alpha: 0.
               node_risk: 0.
               tree_risk: 0.
               tree_error: 0.
               splits:
                  - { var:291, quality:5.0985115766525269e-001,
                      le:6.4843750000000000e-001 }
            -
               depth: 1
               sample_count: 23868
               value: -2.1609061547060798e-001
               norm_class_idx: 0
               Tn: 0
               complexity: 0
               alpha: 0.
               node_risk: 0.
               tree_risk: 0.
               tree_error: 0.
               splits:
                  - { var:356, quality:1.7220024764537811e-001,
                      le:5.4901961237192154e-002 }
            -
               depth: 2
               sample_count: 5227
               value: 2.4972307107948460e-001
               norm_class_idx: 1
               Tn: 0
               complexity: 0
               alpha: 0.
               node_risk: 0.
               tree_risk: 0.
               tree_error: 0.
               splits:
                  - { var:22, quality:5.4772287607192993e-002,
                      le:2.1815389394760132e-001 }
            -
               depth: 3
               sample_count: 2434
               value: 7.4622811312100101e-001
               norm_class_idx: 1
               Tn: 0
               complexity: 0
               alpha: 0.
               node_risk: 0.
               tree_risk: 0.
               tree_error: 0.
            -
               depth: 3
               sample_count: 2793
               value: -1.0557365493310540e-001
               norm_class_idx: 0
               Tn: 0
               complexity: 0
               alpha: 0.
               node_risk: 0.
               tree_risk: 0.
               tree_error: 0.
            -
               depth: 2
               sample_count: 18641
               value: -4.3665527611069077e-001
               norm_class_idx: 0
               Tn: 0
               complexity: 0
               alpha: 0.
               node_risk: 0.
               tree_risk: 0.
               tree_error: 0.
               splits:
                  - { var:46, quality:1.3194675743579865e-001,
                      le:3.0818563699722290e-001 }
            -
               depth: 3
               sample_count: 15846
               value: -6.1460533880439028e-001
               norm_class_idx: 0
               Tn: 0
               complexity: 0
               alpha: 0.
               node_risk: 0.
               tree_risk: 0.
               tree_error: 0.
            -
               depth: 3
               sample_count: 2795
               value: 1.6522027586633964e-001
               norm_class_idx: 1
               Tn: 0
               complexity: 0
               alpha: 0.
               node_risk: 0.
               tree_risk: 0.
               tree_error: 0.
            -
               depth: 1
               sample_count: 49355
               value: 9.2856681405990196e-002
               norm_class_idx: 1
               Tn: 0
               complexity: 0
               alpha: 0.
               node_risk: 0.
               tree_risk: 0.
               tree_error: 0.
               splits:
                  - { var:286, quality:3.6017805337905884e-001,
                      le:5.0392162799835205e-001 }
            -
               depth: 2
               sample_count: 32880
               value: 2.0713654994977931e-001
               norm_class_idx: 1
               Tn: 0
               complexity: 0
               alpha: 0.
               node_risk: 0.
               tree_risk: 0.
               tree_error: 0.
               splits:
                  - { var:176, quality:2.5250944495201111e-001,
                      le:9.5207497477531433e-002 }
            -
               depth: 3
               sample_count: 15887
               value: -3.6617639487101319e-003
               norm_class_idx: 0
               Tn: 0
               complexity: 0
               alpha: 0.
               node_risk: 0.
               tree_risk: 0.
               tree_error: 0.
            -
               depth: 3
               sample_count: 16993
               value: 4.2554229396736343e-001
               norm_class_idx: 1
               Tn: 0
               complexity: 0
               alpha: 0.
               node_risk: 0.
               tree_risk: 0.
               tree_error: 0.
            -
               depth: 2
               sample_count: 16475
               value: -1.3422973623783405e-001
               norm_class_idx: 0
               Tn: 0
               complexity: 0
               alpha: 0.
               node_risk: 0.
               tree_risk: 0.
               tree_error: 0.
               splits:
                  - { var:109, quality:1.2971001863479614e-001,
                      le:1.3544645905494690e-001 }
            -
               depth: 3
               sample_count: 5972
               value: 3.2879566618449113e-001
               norm_class_idx: 1
               Tn: 0
               complexity: 0
               alpha: 0.
               node_risk: 0.
               tree_risk: 0.
               tree_error: 0.
            -
               depth: 3
               sample_count: 10503
               value: -3.9259548884915352e-001
               norm_class_idx: 0
               Tn: 0
               complexity: 0
               alpha: 0.
               node_risk: 0.
               tree_risk: 0.
               tree_error: 0.
      -
         best_tree_idx: -1
         nodes:
            -
               depth: 0
               sample_count: 73223
               value: -1.4155343563970946e-014
               norm_class_idx: 0
               Tn: 0
               complexity: 0
               alpha: 0.
               node_risk: 0.
               tree_risk: 0.
               tree_error: 0.
               splits:
                  - { var:251, quality:5.1020133495330811e-001,
                      le:2.5781250000000000e-001 }
            -
               depth: 1
               sample_count: 65152
               value: 5.2696626893084582e-002
               norm_class_idx: 1
               Tn: 0
               complexity: 0
               alpha: 0.
               node_risk: 0.
               tree_risk: 0.
               tree_error: 0.
               splits:
                  - { var:361, quality:4.5069819688796997e-001,
                      le:4.0588235855102539e-001 }
            -
               depth: 2
               sample_count: 14022
               value: 3.2110533708098082e-001
               norm_class_idx: 1
               Tn: 0
               complexity: 0
               alpha: 0.
               node_risk: 0.
               tree_risk: 0.
               tree_error: 0.
               splits:
                  - { var:341, quality:1.2531675398349762e-001,
                      le:4.3333333730697632e-001 }
            -
               depth: 3
               sample_count: 7680
               value: 7.2879944960340548e-001
               norm_class_idx: 1
               Tn: 0
               complexity: 0
               alpha: 0.
               node_risk: 0.
               tree_risk: 0.
               tree_error: 0.
            -
               depth: 3
               sample_count: 6342
               value: 3.4480154229106483e-002
               norm_class_idx: 1
               Tn: 0
               complexity: 0
               alpha: 0.
               node_risk: 0.
               tree_risk: 0.
               tree_error: 0.
            -
               depth: 2
               sample_count: 51130
               value: -2.9123903403181502e-002
               norm_class_idx: 0
               Tn: 0
               complexity: 0
               alpha: 0.
               node_risk: 0.
               tree_risk: 0.
               tree_error: 0.
               splits:
                  - { var:275, quality:3.4787261486053467e-001,
                      le:1.6406250000000000e-001 }
            -
               depth: 3
               sample_count: 33880
               value: 1.0514849915358557e-001
               norm_class_idx: 1
               Tn: 0
               complexity: 0
               alpha: 0.
               node_risk: 0.
               tree_risk: 0.
               tree_error: 0.
            -
               depth: 3
               sample_count: 17250
               value: -3.4047489094347366e-001
               norm_class_idx: 0
               Tn: 0
               complexity: 0
               alpha: 0.
               node_risk: 0.
               tree_risk: 0.
               tree_error: 0.
            -
               depth: 1
               sample_count: 8071
               value: -4.0889175853350812e-001
               norm_class_idx: 0
               Tn: 0
               complexity: 0
               alpha: 0.
               node_risk: 0.
               tree_risk: 0.
               tree_error: 0.
               splits:
                  - { var:371, quality:7.4295550584793091e-002,
                      le:3.8281250000000000e-001 }
            -
               depth: 2
               sample_count: 926
               value: 3.6706989969705900e-001
               norm_class_idx: 1
               Tn: 0
               complexity: 0
               alpha: 0.
               node_risk: 0.
               tree_risk: 0.
               tree_error: 0.
               splits:
                  - { var:291, quality:1.2464060448110104e-002,
                      le:6.9531250000000000e-001 }
            -
               depth: 3
               sample_count: 296
               value: -9.0397797804412605e-001
               norm_class_idx: 0
               Tn: 0
               complexity: 0
               alpha: 0.
               node_risk: 0.
               tree_risk: 0.
               tree_error: 0.
            -
               depth: 3
               sample_count: 630
               value: 7.7599881863691256e-001
               norm_class_idx: 1
               Tn: 0
               complexity: 0
               alpha: 0.
               node_risk: 0.
               tree_risk: 0.
               tree_error: 0.
            -
               depth: 2
               sample_count: 7145
               value: -5.6577522658251989e-001
               norm_class_idx: 0
               Tn: 0
               complexity: 0
               alpha: 0.
               node_risk: 0.
               tree_risk: 0.
               tree_error: 0.
               splits:
                  - { var:100, quality:6.8708077073097229e-002,
                      le:4.9547635018825531e-002 }
            -
               depth: 3
               sample_count: 665
               value: 4.3612811877326346e-001
               norm_class_idx: 1
               Tn: 0
               complexity: 0
               alpha: 0.
               node_risk: 0.
               tree_risk: 0.
               tree_error: 0.
            -
               depth: 3
               sample_count: 6480
               value: -6.9222357309302918e-001
               norm_class_idx: 0
               Tn: 0
               complexity: 0
               alpha: 0.
               node_risk: 0.
               tree_risk: 0.
               tree_error: 0.
      -
         best_tree_idx: -1
         nodes:
            -
               depth: 0
               sample_count: 73223
               value: -8.3821838359200029e-015
               norm_class_idx: 0
               Tn: 0
               complexity: 0
               alpha: 0.
               node_risk: 0.
               tree_risk: 0.
               tree_error: 0.
               splits:
                  - { var:305, quality:5.0965172052383423e-001,
                      le:6.7254900932312012e-001 }
            -
               depth: 1
               sample_count: 68396
               value: 3.6166705443833651e-002
               norm_class_idx: 1
               Tn: 0
               complexity: 0
               alpha: 0.
               node_risk: 0.
               tree_risk: 0.
               tree_error: 0.
               splits:
                  - { var:244, quality:4.8009160161018372e-001,
                      le:4.4509804248809814e-001 }
            -
               depth: 2
               sample_count: 38091
               value: 1.6729213403354615e-001
               norm_class_idx: 1
               Tn: 0
               complexity: 0
               alpha: 0.
               node_risk: 0.
               tree_risk: 0.
               tree_error: 0.
               splits:
                  - { var:18, quality:2.9058298468589783e-001,
                      le:2.8359049558639526e-001 }
            -
               depth: 3
               sample_count: 24580
               value: 2.9762556669123696e-001
               norm_class_idx: 1
               Tn: 0
               complexity: 0
               alpha: 0.
               node_risk: 0.
               tree_risk: 0.
               tree_error: 0.
            -
               depth: 3
               sample_count: 13511
               value: -7.2713397149487255e-002
               norm_class_idx: 0
               Tn: 0
               complexity: 0
               alpha: 0.
               node_risk: 0.
               tree_risk: 0.
               tree_error: 0.
            -
               depth: 2
               sample_count: 30305
               value: -1.4923431226596098e-001
               norm_class_idx: 0
               Tn: 0
               complexity: 0
               alpha: 0.
               node_risk: 0.
               tree_risk: 0.
               tree_error: 0.
               splits:
                  - { var:82, quality:2.0824654400348663e-001,
                      le:2.2862046957015991e-001 }
            -
               depth: 3
               sample_count: 11020
               value: -5.7507863466068920e-001
               norm_class_idx: 0
               Tn: 0
               complexity: 0
               alpha: 0.
               node_risk: 0.
               tree_risk: 0.
               tree_error: 0.
            -
               depth: 3
               sample_count: 19285
               value: 3.8670023671716461e-004
               norm_class_idx: 1
               Tn: 0
               complexity: 0
               alpha: 0.
               node_risk: 0.
               tree_risk: 0.
               tree_error: 0.
            -
               depth: 1
               sample_count: 4827
               value: -5.9567772869965241e-001
               norm_class_idx: 0
               Tn: 0
               complexity: 0
               alpha: 0.
               node_risk: 0.
               tree_risk: 0.
               tree_error: 0.
               splits:
                  - { var:278, quality:4.2696021497249603e-002,
                      le:5.4313731193542480e-001 }
            -
               depth: 2
               sample_count: 3888
               value: -8.0639481311611616e-001
               norm_class_idx: 0
               Tn: 0
               complexity: 0
               alpha: 0.
               node_risk: 0.
               tree_risk: 0.
               tree_error: 0.
               splits:
                  - { var:177, quality:3.6344625055789948e-002,
                      le:2.8713703155517578e-001 }
            -
               depth: 3
               sample_count: 2974
               value: -1.0004022562122370e+000
               norm_class_idx: 0
               Tn: 0
               complexity: 0
               alpha: 0.
               node_risk: 0.
               tree_risk: 0.
               tree_error: 0.
            -
               depth: 3
               sample_count: 914
               value: -3.2586754364518666e-001
               norm_class_idx: 0
               Tn: 0
               complexity: 0
               alpha: 0.
               node_risk: 0.
               tree_risk: 0.
               tree_error: 0.
            -
               depth: 2
               sample_count: 939
               value: -7.3475712200184548e-002
               norm_class_idx: 0
               Tn: 0
               complexity: 0
               alpha: 0.
               node_risk: 0.
               tree_risk: 0.
               tree_error: 0.
               splits:
                  - { var:62, quality:9.7616519778966904e-003,
                      le:2.8206759691238403e-001 }
            -
               depth: 3
               sample_count: 698
               value: 4.4508101702303332e-001
               norm_class_idx: 1
               Tn: 0
               complexity: 0
               alpha: 0.
               node_risk: 0.
               tree_risk: 0.
               tree_error: 0.
            -
               depth: 3
               sample_count: 241
               value: -1.1388575374728906e+000
               norm_class_idx: 0
               Tn: 0
               complexity: 0
               alpha: 0.
               node_risk: 0.
               tree_risk: 0.
               tree_error: 0.
      -
         best_tree_idx: -1
         nodes:
            -
               depth: 0
               sample_count: 73223
               value: 1.0880185641326416e-014
               norm_class_idx: 1
               Tn: 0
               complexity: 0
               alpha: 0.
               node_risk: 0.
               tree_risk: 0.
               tree_error: 0.
               splits:
                  - { var:137, quality:5.0936198234558105e-001,
                      le:2.1754524111747742e-001 }
            -
               depth: 1
               sample_count: 32793
               value: 1.7712333832621741e-001
               norm_class_idx: 1
               Tn: 0
               complexity: 0
               alpha: 0.
               node_risk: 0.
               tree_risk: 0.
               tree_error: 0.
               splits:
                  - { var:160, quality:2.0359499752521515e-001,
                      le:1.6725735366344452e-001 }
            -
               depth: 2
               sample_count: 9574
               value: -1.3627289173658516e-001
               norm_class_idx: 0
               Tn: 0
               complexity: 0
               alpha: 0.
               node_risk: 0.
               tree_risk: 0.
               tree_error: 0.
               splits:
                  - { var:271, quality:6.7723855376243591e-002,
                      le:5.3906250000000000e-001 }
            -
               depth: 3
               sample_count: 5563
               value: 1.4263223405417771e-001
               norm_class_idx: 1
               Tn: 0
               complexity: 0
               alpha: 0.
               node_risk: 0.
               tree_risk: 0.
               tree_error: 0.
            -
               depth: 3
               sample_count: 4011
               value: -6.0363617109046919e-001
               norm_class_idx: 0
               Tn: 0
               complexity: 0
               alpha: 0.
               node_risk: 0.
               tree_risk: 0.
               tree_error: 0.
            -
               depth: 2
               sample_count: 23219
               value: 3.3071834293950642e-001
               norm_class_idx: 1
               Tn: 0
               complexity: 0
               alpha: 0.
               node_risk: 0.
               tree_risk: 0.
               tree_error: 0.
               splits:
                  - { var:251, quality:1.4812822639942169e-001,
                      le:7.8125000000000000e-003 }
            -
               depth: 3
               sample_count: 8221
               value: 7.2771896917150891e-001
               norm_class_idx: 1
               Tn: 0
               complexity: 0
               alpha: 0.
               node_risk: 0.
               tree_risk: 0.
               tree_error: 0.
            -
               depth: 3
               sample_count: 14998
               value: 1.7937419654958542e-001
               norm_class_idx: 1
               Tn: 0
               complexity: 0
               alpha: 0.
               node_risk: 0.
               tree_risk: 0.
               tree_error: 0.
            -
               depth: 1
               sample_count: 40430
               value: -1.0722337545118676e-001
               norm_class_idx: 0
               Tn: 0
               complexity: 0
               alpha: 0.
               node_risk: 0.
               tree_risk: 0.
               tree_error: 0.
               splits:
                  - { var:132, quality:3.2559457421302795e-001,
                      le:2.2947406768798828e-001 }
            -
               depth: 2
               sample_count: 21471
               value: -2.8303547321930089e-001
               norm_class_idx: 0
               Tn: 0
               complexity: 0
               alpha: 0.
               node_risk: 0.
               tree_risk: 0.
               tree_error: 0.
               splits:
                  - { var:217, quality:1.9364707171916962e-001,
                      le:6.6862750053405762e-001 }
            -
               depth: 3
               sample_count: 16773
               value: -1.8795659214699198e-001
               norm_class_idx: 0
               Tn: 0
               complexity: 0
               alpha: 0.
               node_risk: 0.
               tree_risk: 0.
               tree_error: 0.
            -
               depth: 3
               sample_count: 4698
               value: -7.6954766639986749e-001
               norm_class_idx: 0
               Tn: 0
               complexity: 0
               alpha: 0.
               node_risk: 0.
               tree_risk: 0.
               tree_error: 0.
            -
               depth: 2
               sample_count: 18959
               value: 1.1019870365615055e-001
               norm_class_idx: 1
               Tn: 0
               complexity: 0
               alpha: 0.
               node_risk: 0.
               tree_risk: 0.
               tree_error: 0.
               splits:
                  - { var:118, quality:1.4327999949455261e-001,
                      le:1.5530103445053101e-001 }
            -
               depth: 3
               sample_count: 6918
               value: -1.4903495213626128e-001
               norm_class_idx: 0
               Tn: 0
               complexity: 0
               alpha: 0.
               node_risk: 0.
               tree_risk: 0.
               tree_error: 0.
            -
               depth: 3
               sample_count: 12041
               value: 2.7340361713056921e-001
               norm_class_idx: 1
               Tn: 0
               complexity: 0
               alpha: 0.
               node_risk: 0.
               tree_risk: 0.
               tree_error: 0.
      -
         best_tree_idx: -1
         nodes:
            -
               depth: 0
               sample_count: 73223
               value: -1.5543122344752215e-015
               norm_class_idx: 0
               Tn: 0
               complexity: 0
               alpha: 0.
               node_risk: 0.
               tree_risk: 0.
               tree_error: 0.
               splits:
                  - { var:199, quality:5.0825458765029907e-001,
                      le:8.2031250000000000e-001 }
            -
               depth: 1
               sample_count: 10617
               value: -4.6358383560227562e-001
               norm_class_idx: 0
               Tn: 0
               complexity: 0
               alpha: 0.
               node_risk: 0.
               tree_risk: 0.
               tree_error: 0.
               splits:
                  - { var:254, quality:5.1480095833539963e-002,
                      le:5.8235299587249756e-001 }
            -
               depth: 2
               sample_count: 9710
               value: -6.1607625927580301e-001
               norm_class_idx: 0
               Tn: 0
               complexity: 0
               alpha: 0.
               node_risk: 0.
               tree_risk: 0.
               tree_error: 0.
               splits:
                  - { var:136, quality:4.7882333397865295e-002,
                      le:1.6286483407020569e-001 }
            -
               depth: 3
               sample_count: 4377
               value: -3.2478852811294923e-001
               norm_class_idx: 0
               Tn: 0
               complexity: 0
               alpha: 0.
               node_risk: 0.
               tree_risk: 0.
               tree_error: 0.
            -
               depth: 3
               sample_count: 5333
               value: -1.2225834052964739e+000
               norm_class_idx: 0
               Tn: 0
               complexity: 0
               alpha: 0.
               node_risk: 0.
               tree_risk: 0.
               tree_error: 0.
            -
               depth: 2
               sample_count: 907
               value: 3.1118655769905529e-001
               norm_class_idx: 1
               Tn: 0
               complexity: 0
               alpha: 0.
               node_risk: 0.
               tree_risk: 0.
               tree_error: 0.
               splits:
                  - { var:48, quality:8.3153983578085899e-003,
                      le:9.4907209277153015e-002 }
            -
               depth: 3
               sample_count: 549
               value: 1.0966475234419744e+000
               norm_class_idx: 1
               Tn: 0
               complexity: 0
               alpha: 0.
               node_risk: 0.
               tree_risk: 0.
               tree_error: 0.
            -
               depth: 3
               sample_count: 358
               value: -6.1508069569862744e-001
               norm_class_idx: 0
               Tn: 0
               complexity: 0
               alpha: 0.
               node_risk: 0.
               tree_risk: 0.
               tree_error: 0.
            -
               depth: 1
               sample_count: 62606
               value: 3.8145921370882775e-002
               norm_class_idx: 1
               Tn: 0
               complexity: 0
               alpha: 0.
               node_risk: 0.
               tree_risk: 0.
               tree_error: 0.
               splits:
                  - { var:87, quality:4.6647250652313232e-001,
                      le:1.1230233311653137e-001 }
            -
               depth: 2
               sample_count: 7167
               value: 4.3121190645479518e-001
               norm_class_idx: 1
               Tn: 0
               complexity: 0
               alpha: 0.
               node_risk: 0.
               tree_risk: 0.
               tree_error: 0.
               splits:
                  - { var:63, quality:5.4892715066671371e-002,
                      le:1.0091130435466766e-001 }
            -
               depth: 3
               sample_count: 1697
               value: -3.0002860564852196e-001
               norm_class_idx: 0
               Tn: 0
               complexity: 0
               alpha: 0.
               node_risk: 0.
               tree_risk: 0.
               tree_error: 0.
            -
               depth: 3
               sample_count: 5470
               value: 7.0774698757859456e-001
               norm_class_idx: 1
               Tn: 0
               complexity: 0
               alpha: 0.
               node_risk: 0.
               tree_risk: 0.
               tree_error: 0.
            -
               depth: 2
               sample_count: 55439
               value: 1.0806399139415787e-003
               norm_class_idx: 1
               Tn: 0
               complexity: 0
               alpha: 0.
               node_risk: 0.
               tree_risk: 0.
               tree_error: 0.
               splits:
                  - { var:226, quality:4.2655777931213379e-001,
                      le:5.4705882072448730e-001 }
            -
               depth: 3
               sample_count: 29223
               value: 1.2619297322470902e-001
               norm_class_idx: 1
               Tn: 0
               complexity: 0
               alpha: 0.
               node_risk: 0.
               tree_risk: 0.
               tree_error: 0.
            -
               depth: 3
               sample_count: 26216
               value: -1.7446410578730576e-001
               norm_class_idx: 0
               Tn: 0
               complexity: 0
               alpha: 0.
               node_risk: 0.
               tree_risk: 0.
               tree_error: 0.
      -
         best_tree_idx: -1
         nodes:
            -
               depth: 0
               sample_count: 73223
               value: 8.8817841970012444e-016
               norm_class_idx: 1
               Tn: 0
               complexity: 0
               alpha: 0.
               node_risk: 0.
               tree_risk: 0.
               tree_error: 0.
               splits:
                  - { var:361, quality:5.0943905115127563e-001,
                      le:5.0784313678741455e-001 }
            -
               depth: 1
               sample_count: 44406
               value: 1.1327932746824729e-001
               norm_class_idx: 1
               Tn: 0
               complexity: 0
               alpha: 0.
               node_risk: 0.
               tree_risk: 0.
               tree_error: 0.
               splits:
                  - { var:349, quality:3.1103423237800598e-001,
                      le:4.6078431606292725e-001 }
            -
               depth: 2
               sample_count: 38634
               value: 1.5690927509979505e-001
               norm_class_idx: 1
               Tn: 0
               complexity: 0
               alpha: 0.
               node_risk: 0.
               tree_risk: 0.
               tree_error: 0.
               splits:
                  - { var:313, quality:2.9550549387931824e-001,
                      le:5.0000000000000000e-001 }
            -
               depth: 3
               sample_count: 15060
               value: 4.2318826685630284e-001
               norm_class_idx: 1
               Tn: 0
               complexity: 0
               alpha: 0.
               node_risk: 0.
               tree_risk: 0.
               tree_error: 0.
            -
               depth: 3
               sample_count: 23574
               value: 3.8477015729019418e-002
               norm_class_idx: 1
               Tn: 0
               complexity: 0
               alpha: 0.
               node_risk: 0.
               tree_risk: 0.
               tree_error: 0.
            -
               depth: 2
               sample_count: 5772
               value: -6.2536093846233265e-001
               norm_class_idx: 0
               Tn: 0
               complexity: 0
               alpha: 0.
               node_risk: 0.
               tree_risk: 0.
               tree_error: 0.
               splits:
                  - { var:245, quality:2.6187369599938393e-002,
                      le:5.6666672229766846e-001 }
            -
               depth: 3
               sample_count: 1248
               value: 7.5934174387197628e-002
               norm_class_idx: 1
               Tn: 0
               complexity: 0
               alpha: 0.
               node_risk: 0.
               tree_risk: 0.
               tree_error: 0.
            -
               depth: 3
               sample_count: 4524
               value: -1.0629918750126979e+000
               norm_class_idx: 0
               Tn: 0
               complexity: 0
               alpha: 0.
               node_risk: 0.
               tree_risk: 0.
               tree_error: 0.
            -
               depth: 1
               sample_count: 28817
               value: -1.6895220475887310e-001
               norm_class_idx: 0
               Tn: 0
               complexity: 0
               alpha: 0.
               node_risk: 0.
               tree_risk: 0.
               tree_error: 0.
               splits:
                  - { var:146, quality:2.1711729466915131e-001,
                      le:2.4421016871929169e-001 }
            -
               depth: 2
               sample_count: 17020
               value: -3.7453945348474554e-001
               norm_class_idx: 0
               Tn: 0
               complexity: 0
               alpha: 0.
               node_risk: 0.
               tree_risk: 0.
               tree_error: 0.
               splits:
                  - { var:134, quality:1.3982979953289032e-001,
                      le:4.7745667397975922e-002 }
            -
               depth: 3
               sample_count: 3709
               value: 5.4179593047469381e-002
               norm_class_idx: 1
               Tn: 0
               complexity: 0
               alpha: 0.
               node_risk: 0.
               tree_risk: 0.
               tree_error: 0.
            -
               depth: 3
               sample_count: 13311
               value: -5.7351501613362954e-001
               norm_class_idx: 0
               Tn: 0
               complexity: 0
               alpha: 0.
               node_risk: 0.
               tree_risk: 0.
               tree_error: 0.
            -
               depth: 2
               sample_count: 11797
               value: 9.8013287504907301e-002
               norm_class_idx: 1
               Tn: 0
               complexity: 0
               alpha: 0.
               node_risk: 0.
               tree_risk: 0.
               tree_error: 0.
               splits:
                  - { var:154, quality:9.5733977854251862e-002,
                      le:2.3530194163322449e-001 }
            -
               depth: 3
               sample_count: 7711
               value: -1.8777803540786484e-001
               norm_class_idx: 0
               Tn: 0
               complexity: 0
               alpha: 0.
               node_risk: 0.
               tree_risk: 0.
               tree_error: 0.
            -
               depth: 3
               sample_count: 4086
               value: 6.1458398095114375e-001
               norm_class_idx: 1
               Tn: 0
               complexity: 0
               alpha: 0.
               node_risk: 0.
               tree_risk: 0.
               tree_error: 0.
      -
         best_tree_idx: -1
         nodes:
            -
               depth: 0
               sample_count: 73223
               value: -2.2204460492503182e-015
               norm_class_idx: 0
               Tn: 0
               complexity: 0
               alpha: 0.
               node_risk: 0.
               tree_risk: 0.
               tree_error: 0.
               splits:
                  - { var:69, quality:5.0893759727478027e-001,
                      le:1.5473377704620361e-001 }
            -
               depth: 1
               sample_count: 30539
               value: 1.3540912095604982e-001
               norm_class_idx: 1
               Tn: 0
               complexity: 0
               alpha: 0.
               node_risk: 0.
               tree_risk: 0.
               tree_error: 0.
               splits:
                  - { var:147, quality:2.7136808633804321e-001,
                      le:1.3942220807075500e-001 }
            -
               depth: 2
               sample_count: 10391
               value: 6.9400062764594184e-001
               norm_class_idx: 1
               Tn: 0
               complexity: 0
               alpha: 0.
               node_risk: 0.
               tree_risk: 0.
               tree_error: 0.
               splits:
                  - { var:322, quality:9.0224966406822205e-002,
                      le:5.1960790157318115e-001 }
            -
               depth: 3
               sample_count: 9285
               value: 8.1028785864126718e-001
               norm_class_idx: 1
               Tn: 0
               complexity: 0
               alpha: 0.
               node_risk: 0.
               tree_risk: 0.
               tree_error: 0.
            -
               depth: 3
               sample_count: 1106
               value: -2.7309260196097801e-001
               norm_class_idx: 0
               Tn: 0
               complexity: 0
               alpha: 0.
               node_risk: 0.
               tree_risk: 0.
               tree_error: 0.
            -
               depth: 2
               sample_count: 20148
               value: -2.5522575430514057e-002
               norm_class_idx: 0
               Tn: 0
               complexity: 0
               alpha: 0.
               node_risk: 0.
               tree_risk: 0.
               tree_error: 0.
               splits:
                  - { var:273, quality:1.9307470321655273e-001,
                      le:6.0980391502380371e-001 }
            -
               depth: 3
               sample_count: 11561
               value: 1.4859977349312548e-001
               norm_class_idx: 1
               Tn: 0
               complexity: 0
               alpha: 0.
               node_risk: 0.
               tree_risk: 0.
               tree_error: 0.
            -
               depth: 3
               sample_count: 8587
               value: -2.8706956501116648e-001
               norm_class_idx: 0
               Tn: 0
               complexity: 0
               alpha: 0.
               node_risk: 0.
               tree_risk: 0.
               tree_error: 0.
            -
               depth: 1
               sample_count: 42684
               value: -1.3360427542037825e-001
               norm_class_idx: 0
               Tn: 0
               complexity: 0
               alpha: 0.
               node_risk: 0.
               tree_risk: 0.
               tree_error: 0.
               splits:
                  - { var:265, quality:2.6729881763458252e-001,
                      le:4.7254902124404907e-001 }
            -
               depth: 2
               sample_count: 27942
               value: -1.3558018311823129e-003
               norm_class_idx: 0
               Tn: 0
               complexity: 0
               alpha: 0.
               node_risk: 0.
               tree_risk: 0.
               tree_error: 0.
               splits:
                  - { var:96, quality:1.8764133751392365e-001,
                      le:1.0817931592464447e-001 }
            -
               depth: 3
               sample_count: 6113
               value: -3.9357446987880657e-001
               norm_class_idx: 0
               Tn: 0
               complexity: 0
               alpha: 0.
               node_risk: 0.
               tree_risk: 0.
               tree_error: 0.
            -
               depth: 3
               sample_count: 21829
               value: 9.2960156848111014e-002
               norm_class_idx: 1
               Tn: 0
               complexity: 0
               alpha: 0.
               node_risk: 0.
               tree_risk: 0.
               tree_error: 0.
            -
               depth: 2
               sample_count: 14742
               value: -5.1191184915840737e-001
               norm_class_idx: 0
               Tn: 0
               complexity: 0
               alpha: 0.
               node_risk: 0.
               tree_risk: 0.
               tree_error: 0.
               splits:
                  - { var:36, quality:9.1408431529998779e-002,
                      le:2.6359442621469498e-002 }
            -
               depth: 3
               sample_count: 508
               value: 6.9038875892553475e-001
               norm_class_idx: 1
               Tn: 0
               complexity: 0
               alpha: 0.
               node_risk: 0.
               tree_risk: 0.
               tree_error: 0.
            -
               depth: 3
               sample_count: 14234
               value: -6.0845090957515491e-001
               norm_class_idx: 0
               Tn: 0
               complexity: 0
               alpha: 0.
               node_risk: 0.
               tree_risk: 0.
               tree_error: 0.
      -
         best_tree_idx: -1
         nodes:
            -
               depth: 0
               sample_count: 73223
               value: -7.1609385088323118e-015
               norm_class_idx: 0
               Tn: 0
               complexity: 0
               alpha: 0.
               node_risk: 0.
               tree_risk: 0.
               tree_error: 0.
               splits:
                  - { var:47, quality:5.0856184959411621e-001,
                      le:1.0402490198612213e-001 }
            -
               depth: 1
               sample_count: 20632
               value: -2.1123777068897673e-001
               norm_class_idx: 0
               Tn: 0
               complexity: 0
               alpha: 0.
               node_risk: 0.
               tree_risk: 0.
               tree_error: 0.
               splits:
                  - { var:175, quality:1.5247926115989685e-001,
                      le:2.7225989103317261e-001 }
            -
               depth: 2
               sample_count: 13190
               value: -3.3329853333749820e-001
               norm_class_idx: 0
               Tn: 0
               complexity: 0
               alpha: 0.
               node_risk: 0.
               tree_risk: 0.
               tree_error: 0.
               splits:
                  - { var:70, quality:1.1673058569431305e-001,
                      le:2.0942386239767075e-002 }
            -
               depth: 3
               sample_count: 945
               value: 3.8108567839397456e-001
               norm_class_idx: 1
               Tn: 0
               complexity: 0
               alpha: 0.
               node_risk: 0.
               tree_risk: 0.
               tree_error: 0.
            -
               depth: 3
               sample_count: 12245
               value: -3.9859298294732004e-001
               norm_class_idx: 0
               Tn: 0
               complexity: 0
               alpha: 0.
               node_risk: 0.
               tree_risk: 0.
               tree_error: 0.
            -
               depth: 2
               sample_count: 7442
               value: 8.5397080268267575e-002
               norm_class_idx: 1
               Tn: 0
               complexity: 0
               alpha: 0.
               node_risk: 0.
               tree_risk: 0.
               tree_error: 0.
               splits:
                  - { var:58, quality:4.4279571622610092e-002,
                      le:2.7747094631195068e-001 }
            -
               depth: 3
               sample_count: 4477
               value: 3.1869539209445025e-001
               norm_class_idx: 1
               Tn: 0
               complexity: 0
               alpha: 0.
               node_risk: 0.
               tree_risk: 0.
               tree_error: 0.
            -
               depth: 3
               sample_count: 2965
               value: -4.5785314192246185e-001
               norm_class_idx: 0
               Tn: 0
               complexity: 0
               alpha: 0.
               node_risk: 0.
               tree_risk: 0.
               tree_error: 0.
            -
               depth: 1
               sample_count: 52591
               value: 8.2452219339468599e-002
               norm_class_idx: 1
               Tn: 0
               complexity: 0
               alpha: 0.
               node_risk: 0.
               tree_risk: 0.
               tree_error: 0.
               splits:
                  - { var:222, quality:3.7010937929153442e-001,
                      le:4.4901961088180542e-001 }
            -
               depth: 2
               sample_count: 5773
               value: -3.5413852974738780e-001
               norm_class_idx: 0
               Tn: 0
               complexity: 0
               alpha: 0.
               node_risk: 0.
               tree_risk: 0.
               tree_error: 0.
               splits:
                  - { var:88, quality:5.8453075587749481e-002,
                      le:1.9418123364448547e-001 }
            -
               depth: 3
               sample_count: 3046
               value: -9.5614434195199527e-001
               norm_class_idx: 0
               Tn: 0
               complexity: 0
               alpha: 0.
               node_risk: 0.
               tree_risk: 0.
               tree_error: 0.
            -
               depth: 3
               sample_count: 2727
               value: 7.3052570868996192e-002
               norm_class_idx: 1
               Tn: 0
               complexity: 0
               alpha: 0.
               node_risk: 0.
               tree_risk: 0.
               tree_error: 0.
            -
               depth: 2
               sample_count: 46818
               value: 1.4484178252527788e-001
               norm_class_idx: 1
               Tn: 0
               complexity: 0
               alpha: 0.
               node_risk: 0.
               tree_risk: 0.
               tree_error: 0.
               splits:
                  - { var:239, quality:3.2515782117843628e-001,
                      le:8.6718750000000000e-001 }
            -
               depth: 3
               sample_count: 7748
               value: -1.6592368106984129e-001
               norm_class_idx: 0
               Tn: 0
               complexity: 0
               alpha: 0.
               node_risk: 0.
               tree_risk: 0.
               tree_error: 0.
            -
               depth: 3
               sample_count: 39070
               value: 2.0821591083600036e-001
               norm_class_idx: 1
               Tn: 0
               complexity: 0
               alpha: 0.
               node_risk: 0.
               tree_risk: 0.
               tree_error: 0.
      -
         best_tree_idx: -1
         nodes:
            -
               depth: 0
               sample_count: 73223
               value: -4.8294701571194546e-015
               norm_class_idx: 0
               Tn: 0
               complexity: 0
               alpha: 0.
               node_risk: 0.
               tree_risk: 0.
               tree_error: 0.
               splits:
                  - { var:225, quality:5.0667709112167358e-001,
                      le:7.3921573162078857e-001 }
            -
               depth: 1
               sample_count: 69022
               value: 2.4178169978819317e-002
               norm_class_idx: 1
               Tn: 0
               complexity: 0
               alpha: 0.
               node_risk: 0.
               tree_risk: 0.
               tree_error: 0.
               splits:
                  - { var:279, quality:4.8597112298011780e-001,
                      le:2.3437500000000000e-002 }
            -
               depth: 2
               sample_count: 62290
               value: 5.2223860041964110e-002
               norm_class_idx: 1
               Tn: 0
               complexity: 0
               alpha: 0.
               node_risk: 0.
               tree_risk: 0.
               tree_error: 0.
               splits:
                  - { var:103, quality:4.6051543951034546e-001,
                      le:3.8542360067367554e-002 }
            -
               depth: 3
               sample_count: 2098
               value: 7.4141054727778000e-001
               norm_class_idx: 1
               Tn: 0
               complexity: 0
               alpha: 0.
               node_risk: 0.
               tree_risk: 0.
               tree_error: 0.
            -
               depth: 3
               sample_count: 60192
               value: 2.9877282641536222e-002
               norm_class_idx: 1
               Tn: 0
               complexity: 0
               alpha: 0.
               node_risk: 0.
               tree_risk: 0.
               tree_error: 0.
            -
               depth: 2
               sample_count: 6732
               value: -5.1236749434594941e-001
               norm_class_idx: 0
               Tn: 0
               complexity: 0
               alpha: 0.
               node_risk: 0.
               tree_risk: 0.
               tree_error: 0.
               splits:
                  - { var:220, quality:3.4152939915657043e-002,
                      le:5.4901961237192154e-002 }
            -
               depth: 3
               sample_count: 308
               value: 5.4317071744923584e-001
               norm_class_idx: 1
               Tn: 0
               complexity: 0
               alpha: 0.
               node_risk: 0.
               tree_risk: 0.
               tree_error: 0.
            -
               depth: 3
               sample_count: 6424
               value: -6.7305322665851930e-001
               norm_class_idx: 0
               Tn: 0
               complexity: 0
               alpha: 0.
               node_risk: 0.
               tree_risk: 0.
               tree_error: 0.
            -
               depth: 1
               sample_count: 4201
               value: -6.2187471327811672e-001
               norm_class_idx: 0
               Tn: 0
               complexity: 0
               alpha: 0.
               node_risk: 0.
               tree_risk: 0.
               tree_error: 0.
               splits:
                  - { var:360, quality:2.9590997844934464e-002,
                      le:2.5686275959014893e-001 }
            -
               depth: 2
               sample_count: 2659
               value: -1.1035239381190414e+000
               norm_class_idx: 0
               Tn: 0
               complexity: 0
               alpha: 0.
               node_risk: 0.
               tree_risk: 0.
               tree_error: 0.
               splits:
                  - { var:269, quality:2.2213362157344818e-002,
                      le:5.1176476478576660e-001 }
            -
               depth: 3
               sample_count: 349
               value: -3.3255759561100173e-001
               norm_class_idx: 0
               Tn: 0
               complexity: 0
               alpha: 0.
               node_risk: 0.
               tree_risk: 0.
               tree_error: 0.
            -
               depth: 3
               sample_count: 2310
               value: -1.3571479465778276e+000
               norm_class_idx: 0
               Tn: 0
               complexity: 0
               alpha: 0.
               node_risk: 0.
               tree_risk: 0.
               tree_error: 0.
            -
               depth: 2
               sample_count: 1542
               value: -1.2604153463522369e-001
               norm_class_idx: 0
               Tn: 0
               complexity: 0
               alpha: 0.
               node_risk: 0.
               tree_risk: 0.
               tree_error: 0.
               splits:
                  - { var:261, quality:9.1013982892036438e-003,
                      le:4.9215686321258545e-001 }
            -
               depth: 3
               sample_count: 408
               value: 4.6748869037823731e-001
               norm_class_idx: 1
               Tn: 0
               complexity: 0
               alpha: 0.
               node_risk: 0.
               tree_risk: 0.
               tree_error: 0.
            -
               depth: 3
               sample_count: 1134
               value: -4.4059222320626640e-001
               norm_class_idx: 0
               Tn: 0
               complexity: 0
               alpha: 0.
               node_risk: 0.
               tree_risk: 0.
               tree_error: 0.
      -
         best_tree_idx: -1
         nodes:
            -
               depth: 0
               sample_count: 73223
               value: -2.2204460492503182e-015
               norm_class_idx: 0
               Tn: 0
               complexity: 0
               alpha: 0.
               node_risk: 0.
               tree_risk: 0.
               tree_error: 0.
               splits:
                  - { var:171, quality:5.0663757324218750e-001,
